MTP
version = 1.1.0
potential_name = MTP1m
scaling = 3.683877743484227e-01
species_count = 4
potential_tag = 
radial_basis_type = RBChebyshev
	min_dist = 1.922217657570168e+00
	max_dist = 5.000000000000000e+00
	radial_basis_size = 8
	radial_funcs_count = 4
	radial_coeffs
		0-0
			{-1.379592000453996e-01, -1.073247378273453e-01, -9.253245306107910e-02, -5.801101752742688e-02, -1.959431142410146e-02, -2.036971435934151e-02, -7.224079311227556e-03, 5.848287753585715e-03}
			{-1.077422039350982e-02, -6.321840310968221e-02, -1.876174921474585e-02, 6.099774312105214e-03, 6.642901860630325e-02, 7.532423815031802e-03, 5.330867870108232e-03, -4.055209118353114e-03}
			{7.694465944628980e-02, -8.084160263880659e-02, 1.167288480895185e-02, 6.944197015652564e-03, 4.845148651806045e-02, -1.277389474277347e-02, -9.923190809489457e-03, -2.179534131611647e-02}
			{-8.014581112437785e-03, -1.474519051943986e-01, -5.525608112205756e-02, -4.929578897885988e-02, -8.681280798525482e-04, -2.931025698395759e-02, -1.988992220636526e-02, -1.632790022163173e-02}
		0-1
			{9.976719666719775e-03, 1.537885668204615e-01, 1.369657346778682e-01, 8.572735393292889e-02, 7.837490391477631e-02, 2.834702917923453e-02, 1.160511944740588e-02, 1.273236075101911e-02}
			{1.100508766541241e-01, 8.217348363091688e-02, 1.710436823791777e-01, 8.521143756673949e-02, 1.771256012854694e-01, 5.195157110272564e-02, 3.577800321237929e-02, 1.289793714570378e-03}
			{8.888530670055736e-02, -8.088671385078891e-02, 3.326837000144115e-02, 9.852638093927198e-03, 9.945815228611160e-02, 1.321992870805900e-02, 1.283381314676587e-02, -1.701740656538977e-02}
			{2.381207317461820e-02, -1.258297999303848e-01, -6.624803174860880e-03, -4.186197854690239e-02, 4.186490642056068e-02, -2.143142470333229e-02, -9.855183171135404e-03, -1.997824649644070e-02}
		0-2
			{3.226217774456536e-02, 2.121350817952079e-01, 1.718526265329211e-01, 1.173697208786076e-01, 8.854483371574853e-02, 3.955200841343515e-02, 1.532855295430511e-02, 1.453771265248021e-02}
			{1.065944270384711e-01, 1.149413583455299e-01, 1.577189016714624e-01, 9.478889705794882e-02, 1.658142938178702e-01, 5.554676352245486e-02, 3.137791015369438e-02, 2.818437731501497e-03}
			{7.804570149673602e-02, -7.991257550800854e-02, 1.354408951128186e-02, 8.618476326797238e-03, 9.181719950250690e-02, 1.278868755282565e-02, 9.252034240348542e-03, -1.483745799986070e-02}
			{2.284216035705356e-02, -1.557681477286977e-01, -4.909564715084690e-03, -5.913136347772401e-02, 4.783609353360868e-02, -3.090444423562384e-02, -1.121110034336910e-02, -2.241795628590264e-02}
		0-3
			{-1.045951933807667e-01, -7.645938240911600e-02, -4.078600388479763e-02, -5.555226624684239e-02, -2.384713538175491e-03, -2.976293138937432e-02, -8.302235414731992e-03, 2.459844844634709e-03}
			{3.741451519481254e-02, 5.528209262569098e-02, 4.850546384723155e-02, 7.358152140295598e-02, 1.044926929166734e-01, 3.870795982071067e-02, 1.212803644936742e-02, 1.377578535655817e-03}
			{1.405454948796880e-01, 7.893032931143265e-02, 1.039947779935639e-01, 1.136723010103305e-01, 1.046892847597220e-01, 3.709481184329267e-02, 5.171782272792339e-03, -1.400691059676035e-02}
			{-1.098375796250695e-03, -2.231427740730222e-02, -4.041307927470744e-02, 6.258097321882816e-02, 3.636548587375017e-02, 4.199844439217904e-02, -4.028462905293457e-03, -6.910638089285135e-04}
		1-0
			{1.662716449387286e-01, 1.938316004983889e-01, 1.507132873701971e-01, 1.545893024642378e-01, 9.296089229023201e-02, 7.643161299084593e-02, 2.716382435386108e-02, 6.036396847026865e-03}
			{-7.440157815564390e-02, -7.913743708197857e-02, -8.641111420124593e-02, -8.141740455972227e-02, -1.004308974409293e-01, -2.679358433973171e-02, -1.065031513010250e-02, 3.700644654223260e-03}
			{4.768485721484995e-02, 1.925220906491542e-01, 1.085355862804259e-01, 5.293594789858028e-02, 2.243950998162222e-02, 5.084876782736042e-02, 3.393009609379598e-02, 2.555100774492065e-02}
			{-7.180310484569845e-02, -4.573053093398474e-02, -1.335516935567499e-01, -4.068781213378549e-02, -1.563376428430079e-02, 1.295358267864597e-02, 1.139061888870788e-02, 1.262982779438874e-02}
		1-1
			{8.397699738885453e-02, -3.005262902298753e-02, 1.553770890950865e-02, 8.410328093927902e-03, 2.703103969205749e-02, 1.570262034709283e-02, 3.860306182934670e-03, -4.605033908370498e-03}
			{-9.035301663243860e-02, -8.610750050380210e-02, -1.055408634289429e-01, -5.837846859310343e-02, -9.667311841182516e-02, -4.061458136209083e-03, -4.105862044285070e-03, 1.366932715589771e-02}
			{8.177739709528746e-02, 2.439050053034806e-01, 1.392730292160164e-01, 6.790051328295045e-02, 9.544641281294652e-03, 2.654703957352355e-02, 1.936807059213264e-02, 1.372869143766361e-02}
			{-8.655708851175729e-02, -2.122261050807602e-01, -1.353562389283714e-01, -1.312860942677179e-01, -2.139956185130279e-02, -5.662750089204075e-02, -1.104764390740843e-02, -2.029388432087724e-02}
		1-2
			{8.136523483134740e-02, -4.402008074331767e-02, 6.734631456905865e-03, -5.771519251200977e-03, 3.022944350755461e-02, 1.301251068401042e-02, 4.992389908526899e-03, -6.002940361649463e-03}
			{-6.251241860998016e-02, 2.026762415829392e-02, -6.911402705680240e-02, 2.285161843040400e-03, -8.797246447562976e-02, 1.551756662916683e-02, -1.277319744806916e-03, 1.808431843674227e-02}
			{9.878887334033000e-02, 3.741419953889683e-01, 1.576531160746373e-01, 1.517753257227670e-01, 1.053781924517065e-02, 6.742266004360878e-02, 2.315313038909491e-02, 2.627622996647500e-02}
			{-1.539462164488011e-02, -2.603860432497492e-01, -2.874954952768546e-02, -1.727749885464538e-01, 3.609058374904747e-02, -7.448187524904865e-02, -5.455391627380021e-04, -3.215528993855742e-02}
		1-3
			{1.381780732537909e-01, 1.634902541776154e-01, 9.773757458511703e-02, 1.317833122606612e-01, 6.243923792015760e-02, 6.385372795483080e-02, 1.551450050739146e-02, 2.761641885459195e-03}
			{-1.313046614339182e-02, 1.981105214818318e-02, 2.374662823941844e-02, -1.387602600717653e-03, -3.318410421578013e-02, 1.739877881855807e-02, 1.459221655669753e-02, 1.470950234488452e-02}
			{7.391367141858725e-02, 1.906945914058423e-01, 1.625907111980984e-01, 5.626601592950597e-02, 5.099018860619438e-02, 5.019378777338082e-02, 4.125148876428269e-02, 2.470350625655146e-02}
			{-4.370342625250642e-02, -1.177004133832780e-01, -9.887948332465740e-02, -1.125491468419319e-01, -1.331818807618855e-02, -4.070038488108200e-02, -4.662969580369012e-04, -9.532484209230255e-03}
		2-0
			{1.814472158545701e-01, 1.933361582482262e-01, 1.785747696661964e-01, 1.497142215224389e-01, 1.051790738150865e-01, 6.781078715581045e-02, 2.637744955383188e-02, 1.277152261809158e-03}
			{-1.418384446119740e-01, -1.518405991004227e-01, -1.830040953094343e-01, -1.196656268427465e-01, -1.466421562705086e-01, -3.189264763373325e-02, -1.407550420999981e-02, 8.847891232000143e-03}
			{-1.893246779437211e-02, 1.118478487584605e-01, 9.908401006608824e-03, 7.829250864023012e-03, -2.422959619342658e-02, 4.308617208047087e-02, 2.853232776610242e-02, 2.874345832092324e-02}
			{4.844818732065046e-02, 4.075683353627564e-01, 5.257144793820669e-02, 2.295117972668700e-01, 4.302014303138396e-02, 1.350839394145597e-01, 2.745943062246723e-02, 4.636017106500535e-02}
		2-1
			{7.213070064377648e-02, -4.933876155734083e-02, 4.839341473486076e-03, -4.016437341277511e-03, 2.187255964679197e-02, 7.965456689515042e-03, 2.489966445763533e-04, -7.440930490953960e-03}
			{-1.434866109709595e-01, -1.963356026031274e-01, -1.836402127274163e-01, -1.351480925054894e-01, -1.434920523175831e-01, -4.515814768024058e-02, -1.924978055789521e-02, 6.534640906395233e-03}
			{6.049054935879133e-02, 1.190924566800799e-01, 1.177158747470997e-01, 1.598317887141243e-03, 1.062526917294137e-02, 1.197806038558250e-02, 2.392453323088803e-02, 1.529932115562405e-02}
			{-6.927593151721904e-02, -1.335500482054543e-01, -9.993696794721796e-02, -8.564596102352204e-02, -2.875435538033594e-02, -3.477706599172906e-02, -2.071171136520877e-02, -1.402254319614397e-02}
		2-2
			{6.980210603338785e-02, -5.098456743726911e-02, -5.704888134310625e-03, -6.720336242404880e-03, 2.529596485730780e-02, 1.764248423675758e-02, 2.776708942727223e-03, -2.911088824870925e-03}
			{-7.622169740763803e-02, -1.036872867110391e-01, -7.356138331920972e-02, -8.090028446377617e-02, -9.887890572722863e-02, -4.082012159979626e-02, -1.251868733490542e-02, 2.312446624586685e-03}
			{6.916901659456735e-02, 2.155875283161515e-01, 1.376521902050514e-01, 6.851658809653090e-02, 1.053029660943285e-02, 2.735418217174149e-02, 1.850849415835296e-02, 1.367820111245130e-02}
			{-1.303747264136857e-02, -6.643558587370606e-02, -3.366298470607384e-02, -6.863906061187297e-02, -1.503471555941315e-03, -2.109177860607652e-02, -1.066034209692038e-02, -1.134214453618544e-02}
		2-3
			{1.434954396917424e-01, 1.948386494216230e-01, 1.099876239468992e-01, 1.479834083079771e-01, 6.739726298566236e-02, 6.702878400460992e-02, 1.382495311302204e-02, 1.796989546062784e-03}
			{-1.238453601587519e-01, -1.289172489553038e-01, -1.378148981697608e-01, -8.685932434775893e-02, -1.196734386295541e-01, -1.795047982322592e-02, -6.550456169965078e-03, 1.339932698154588e-02}
			{-4.174645207653820e-03, 6.595774250583976e-02, 4.655100971931149e-02, -1.279078256311609e-02, -3.675051354532221e-03, 3.104888595797998e-02, 3.143252684592857e-02, 2.510908756786994e-02}
			{5.570098196315933e-02, 3.091775900891445e-01, 4.671056877046825e-02, 1.294369413569766e-01, 1.793385510669629e-02, 6.877930314529512e-02, 8.174041668911941e-03, 2.229453583106855e-02}
		3-0
			{-7.425358276047496e-02, 2.132950208097021e-02, 6.182958372434592e-04, 1.425280237263335e-02, 2.670038778745600e-02, 9.241353274963388e-03, 5.066737228142667e-03, 1.149735504090332e-02}
			{1.143514151772800e-01, 8.029603480847673e-02, 1.714002439949102e-01, 9.224057403020719e-02, 1.747242060445142e-01, 3.872094690216907e-02, 2.810301245420701e-02, -4.865027605996016e-03}
			{1.238804657716514e-01, -8.184801115009577e-02, 9.328400854031220e-02, 1.674640953399271e-02, 1.108860391996171e-01, -1.384384570328866e-02, 7.586893898632648e-04, -3.031693775204762e-02}
			{6.402117290562329e-02, -1.427252139973878e-01, 5.335321217185751e-02, -7.284526208495486e-02, 4.084577885678847e-02, -6.654645804239728e-02, -2.172407224834481e-02, -3.433119951833750e-02}
		3-1
			{6.408059462878889e-02, 2.722562446529435e-01, 2.117451215559393e-01, 1.541626344581356e-01, 1.107940543307760e-01, 5.864972698157444e-02, 2.308465063382534e-02, 2.004872977358719e-02}
			{1.664042065248079e-01, 5.597215072613198e-02, 2.443586063661420e-01, 5.223259836868936e-02, 2.116053668167180e-01, 3.215345649357556e-02, 4.178011811096992e-02, -6.335644972015499e-03}
			{1.024223747860307e-01, -2.557861802648429e-01, 5.457610414837134e-02, -1.179177631925132e-01, 1.079770682083189e-01, -5.906462318231245e-02, 6.909302514939482e-03, -3.800222327084760e-02}
			{4.840683346222013e-02, -1.794876158160094e-01, 3.310625737184572e-02, -8.905263351741453e-02, 5.558297011627263e-02, -5.253648515850832e-02, -9.947942821161102e-03, -2.853928955273697e-02}
		3-2
			{4.313916832381375e-02, 2.284066443757968e-01, 1.846566884952013e-01, 1.233799639223382e-01, 8.744149119316766e-02, 3.611340292076808e-02, 1.414981128398578e-02, 1.447752024603648e-02}
			{1.294016271674842e-01, -2.910976001301511e-02, 1.862650201614002e-01, -1.205001506176071e-02, 1.747270590667361e-01, -3.828581522991286e-03, 2.601479604085604e-02, -1.443726125420398e-02}
			{9.678024783831514e-02, -2.866686745807400e-01, 4.219166071985198e-02, -1.417626998148340e-01, 1.053476114752674e-01, -6.646427075141405e-02, 5.734386893276386e-03, -3.738145413243085e-02}
			{4.797685100089279e-02, -2.456630120653095e-01, 3.572860916231619e-02, -1.291362075879363e-01, 6.314948304895938e-02, -6.879425572219920e-02, -9.172194554100913e-03, -3.167903664515903e-02}
		3-3
			{-8.562411368467512e-02, 4.054066260209375e-03, -1.776705658376137e-02, -6.822980903334469e-03, 8.037113118125777e-03, -5.631068821478462e-03, -1.377921442015405e-03, 7.175903390825422e-03}
			{3.443676587103204e-02, 2.465306277479042e-02, 3.205857979402177e-02, 4.082001411808699e-02, 8.658414376171628e-02, 1.154548545918464e-02, 2.528981265036665e-03, -5.972865807600617e-03}
			{6.296239817143055e-02, -1.170816460636531e-01, -1.764059156893822e-02, -1.388515070336734e-02, 4.383683617728340e-02, -2.718264893235935e-02, -1.542051781666257e-02, -2.605988017068641e-02}
			{-8.746365646645420e-03, -1.672896581331232e-01, -5.855115136182257e-02, -6.184575469692177e-02, 2.337307308255470e-03, -3.671531552320034e-02, -2.132324591760447e-02, -1.888045916823360e-02}
alpha_moments_count = 350
alpha_index_basic_count = 130
alpha_index_basic = {{0, 0, 0, 0}, {0, 1, 0, 0}, {0, 0, 1, 0}, {0, 0, 0, 1}, {0, 2, 0, 0}, {0, 1, 1, 0}, {0, 1, 0, 1}, {0, 0, 2, 0}, {0, 0, 1, 1}, {0, 0, 0, 2}, {0, 3, 0, 0}, {0, 2, 1, 0}, {0, 2, 0, 1}, {0, 1, 2, 0}, {0, 1, 1, 1}, {0, 1, 0, 2}, {0, 0, 3, 0}, {0, 0, 2, 1}, {0, 0, 1, 2}, {0, 0, 0, 3}, {0, 4, 0, 0}, {0, 3, 1, 0}, {0, 3, 0, 1}, {0, 2, 2, 0}, {0, 2, 1, 1}, {0, 2, 0, 2}, {0, 1, 3, 0}, {0, 1, 2, 1}, {0, 1, 1, 2}, {0, 1, 0, 3}, {0, 0, 4, 0}, {0, 0, 3, 1}, {0, 0, 2, 2}, {0, 0, 1, 3}, {0, 0, 0, 4}, {0, 5, 0, 0}, {0, 4, 1, 0}, {0, 4, 0, 1}, {0, 3, 2, 0}, {0, 3, 1, 1}, {0, 3, 0, 2}, {0, 2, 3, 0}, {0, 2, 2, 1}, {0, 2, 1, 2}, {0, 2, 0, 3}, {0, 1, 4, 0}, {0, 1, 3, 1}, {0, 1, 2, 2}, {0, 1, 1, 3}, {0, 1, 0, 4}, {0, 0, 5, 0}, {0, 0, 4, 1}, {0, 0, 3, 2}, {0, 0, 2, 3}, {0, 0, 1, 4}, {0, 0, 0, 5}, {0, 6, 0, 0}, {0, 5, 1, 0}, {0, 5, 0, 1}, {0, 4, 2, 0}, {0, 4, 1, 1}, {0, 4, 0, 2}, {0, 3, 3, 0}, {0, 3, 2, 1}, {0, 3, 1, 2}, {0, 3, 0, 3}, {0, 2, 4, 0}, {0, 2, 3, 1}, {0, 2, 2, 2}, {0, 2, 1, 3}, {0, 2, 0, 4}, {0, 1, 5, 0}, {0, 1, 4, 1}, {0, 1, 3, 2}, {0, 1, 2, 3}, {0, 1, 1, 4}, {0, 1, 0, 5}, {0, 0, 6, 0}, {0, 0, 5, 1}, {0, 0, 4, 2}, {0, 0, 3, 3}, {0, 0, 2, 4}, {0, 0, 1, 5}, {0, 0, 0, 6}, {1, 0, 0, 0}, {1, 1, 0, 0}, {1, 0, 1, 0}, {1, 0, 0, 1}, {1, 2, 0, 0}, {1, 1, 1, 0}, {1, 1, 0, 1}, {1, 0, 2, 0}, {1, 0, 1, 1}, {1, 0, 0, 2}, {1, 3, 0, 0}, {1, 2, 1, 0}, {1, 2, 0, 1}, {1, 1, 2, 0}, {1, 1, 1, 1}, {1, 1, 0, 2}, {1, 0, 3, 0}, {1, 0, 2, 1}, {1, 0, 1, 2}, {1, 0, 0, 3}, {1, 4, 0, 0}, {1, 3, 1, 0}, {1, 3, 0, 1}, {1, 2, 2, 0}, {1, 2, 1, 1}, {1, 2, 0, 2}, {1, 1, 3, 0}, {1, 1, 2, 1}, {1, 1, 1, 2}, {1, 1, 0, 3}, {1, 0, 4, 0}, {1, 0, 3, 1}, {1, 0, 2, 2}, {1, 0, 1, 3}, {1, 0, 0, 4}, {2, 0, 0, 0}, {2, 1, 0, 0}, {2, 0, 1, 0}, {2, 0, 0, 1}, {2, 2, 0, 0}, {2, 1, 1, 0}, {2, 1, 0, 1}, {2, 0, 2, 0}, {2, 0, 1, 1}, {2, 0, 0, 2}, {3, 0, 0, 0}}
alpha_index_times_count = 969
alpha_index_times = {{0, 0, 1, 130}, {1, 1, 1, 131}, {2, 2, 1, 131}, {3, 3, 1, 131}, {1, 4, 1, 132}, {2, 5, 1, 132}, {3, 6, 1, 132}, {1, 5, 1, 133}, {2, 7, 1, 133}, {3, 8, 1, 133}, {1, 6, 1, 134}, {2, 8, 1, 134}, {3, 9, 1, 134}, {1, 10, 1, 135}, {2, 11, 1, 135}, {3, 12, 1, 135}, {1, 11, 1, 136}, {2, 13, 1, 136}, {3, 14, 1, 136}, {1, 12, 1, 137}, {2, 14, 1, 137}, {3, 15, 1, 137}, {1, 13, 1, 138}, {2, 16, 1, 138}, {3, 17, 1, 138}, {1, 14, 1, 139}, {2, 17, 1, 139}, {3, 18, 1, 139}, {1, 15, 1, 140}, {2, 18, 1, 140}, {3, 19, 1, 140}, {4, 4, 1, 141}, {5, 5, 1, 141}, {6, 6, 1, 141}, {4, 5, 1, 142}, {5, 7, 1, 142}, {6, 8, 1, 142}, {4, 6, 1, 143}, {5, 8, 1, 143}, {6, 9, 1, 143}, {5, 5, 1, 144}, {7, 7, 1, 144}, {8, 8, 1, 144}, {5, 6, 1, 145}, {7, 8, 1, 145}, {8, 9, 1, 145}, {6, 6, 1, 146}, {8, 8, 1, 146}, {9, 9, 1, 146}, {4, 10, 1, 147}, {5, 11, 1, 147}, {6, 12, 1, 147}, {4, 11, 1, 148}, {5, 13, 1, 148}, {6, 14, 1, 148}, {4, 12, 1, 149}, {5, 14, 1, 149}, {6, 15, 1, 149}, {4, 13, 1, 150}, {5, 16, 1, 150}, {6, 17, 1, 150}, {4, 14, 1, 151}, {5, 17, 1, 151}, {6, 18, 1, 151}, {4, 15, 1, 152}, {5, 18, 1, 152}, {6, 19, 1, 152}, {5, 10, 1, 153}, {7, 11, 1, 153}, {8, 12, 1, 153}, {5, 11, 1, 154}, {7, 13, 1, 154}, {8, 14, 1, 154}, {5, 12, 1, 155}, {7, 14, 1, 155}, {8, 15, 1, 155}, {5, 13, 1, 156}, {7, 16, 1, 156}, {8, 17, 1, 156}, {5, 14, 1, 157}, {7, 17, 1, 157}, {8, 18, 1, 157}, {5, 15, 1, 158}, {7, 18, 1, 158}, {8, 19, 1, 158}, {6, 10, 1, 159}, {8, 11, 1, 159}, {9, 12, 1, 159}, {6, 11, 1, 160}, {8, 13, 1, 160}, {9, 14, 1, 160}, {6, 12, 1, 161}, {8, 14, 1, 161}, {9, 15, 1, 161}, {6, 13, 1, 162}, {8, 16, 1, 162}, {9, 17, 1, 162}, {6, 14, 1, 163}, {8, 17, 1, 163}, {9, 18, 1, 163}, {6, 15, 1, 164}, {8, 18, 1, 164}, {9, 19, 1, 164}, {4, 4, 1, 165}, {5, 5, 2, 165}, {6, 6, 2, 165}, {7, 7, 1, 165}, {8, 8, 2, 165}, {9, 9, 1, 165}, {4, 10, 1, 166}, {5, 11, 2, 166}, {6, 12, 2, 166}, {7, 13, 1, 166}, {8, 14, 2, 166}, {9, 15, 1, 166}, {4, 11, 1, 167}, {5, 13, 2, 167}, {6, 14, 2, 167}, {7, 16, 1, 167}, {8, 17, 2, 167}, {9, 18, 1, 167}, {4, 12, 1, 168}, {5, 14, 2, 168}, {6, 15, 2, 168}, {7, 17, 1, 168}, {8, 18, 2, 168}, {9, 19, 1, 168}, {4, 20, 1, 169}, {5, 21, 2, 169}, {6, 22, 2, 169}, {7, 23, 1, 169}, {8, 24, 2, 169}, {9, 25, 1, 169}, {4, 21, 1, 170}, {5, 23, 2, 170}, {6, 24, 2, 170}, {7, 26, 1, 170}, {8, 27, 2, 170}, {9, 28, 1, 170}, {4, 22, 1, 171}, {5, 24, 2, 171}, {6, 25, 2, 171}, {7, 27, 1, 171}, {8, 28, 2, 171}, {9, 29, 1, 171}, {4, 23, 1, 172}, {5, 26, 2, 172}, {6, 27, 2, 172}, {7, 30, 1, 172}, {8, 31, 2, 172}, {9, 32, 1, 172}, {4, 24, 1, 173}, {5, 27, 2, 173}, {6, 28, 2, 173}, {7, 31, 1, 173}, {8, 32, 2, 173}, {9, 33, 1, 173}, {4, 25, 1, 174}, {5, 28, 2, 174}, {6, 29, 2, 174}, {7, 32, 1, 174}, {8, 33, 2, 174}, {9, 34, 1, 174}, {10, 10, 1, 175}, {11, 11, 2, 175}, {12, 12, 2, 175}, {13, 13, 1, 175}, {14, 14, 2, 175}, {15, 15, 1, 175}, {10, 11, 1, 176}, {11, 13, 2, 176}, {12, 14, 2, 176}, {13, 16, 1, 176}, {14, 17, 2, 176}, {15, 18, 1, 176}, {10, 12, 1, 177}, {11, 14, 2, 177}, {12, 15, 2, 177}, {13, 17, 1, 177}, {14, 18, 2, 177}, {15, 19, 1, 177}, {11, 11, 1, 178}, {13, 13, 2, 178}, {14, 14, 2, 178}, {16, 16, 1, 178}, {17, 17, 2, 178}, {18, 18, 1, 178}, {11, 12, 1, 179}, {13, 14, 2, 179}, {14, 15, 2, 179}, {16, 17, 1, 179}, {17, 18, 2, 179}, {18, 19, 1, 179}, {12, 12, 1, 180}, {14, 14, 2, 180}, {15, 15, 2, 180}, {17, 17, 1, 180}, {18, 18, 2, 180}, {19, 19, 1, 180}, {10, 20, 1, 181}, {11, 21, 2, 181}, {12, 22, 2, 181}, {13, 23, 1, 181}, {14, 24, 2, 181}, {15, 25, 1, 181}, {10, 21, 1, 182}, {11, 23, 2, 182}, {12, 24, 2, 182}, {13, 26, 1, 182}, {14, 27, 2, 182}, {15, 28, 1, 182}, {10, 22, 1, 183}, {11, 24, 2, 183}, {12, 25, 2, 183}, {13, 27, 1, 183}, {14, 28, 2, 183}, {15, 29, 1, 183}, {10, 23, 1, 184}, {11, 26, 2, 184}, {12, 27, 2, 184}, {13, 30, 1, 184}, {14, 31, 2, 184}, {15, 32, 1, 184}, {10, 24, 1, 185}, {11, 27, 2, 185}, {12, 28, 2, 185}, {13, 31, 1, 185}, {14, 32, 2, 185}, {15, 33, 1, 185}, {10, 25, 1, 186}, {11, 28, 2, 186}, {12, 29, 2, 186}, {13, 32, 1, 186}, {14, 33, 2, 186}, {15, 34, 1, 186}, {11, 20, 1, 187}, {13, 21, 2, 187}, {14, 22, 2, 187}, {16, 23, 1, 187}, {17, 24, 2, 187}, {18, 25, 1, 187}, {11, 21, 1, 188}, {13, 23, 2, 188}, {14, 24, 2, 188}, {16, 26, 1, 188}, {17, 27, 2, 188}, {18, 28, 1, 188}, {11, 22, 1, 189}, {13, 24, 2, 189}, {14, 25, 2, 189}, {16, 27, 1, 189}, {17, 28, 2, 189}, {18, 29, 1, 189}, {11, 23, 1, 190}, {13, 26, 2, 190}, {14, 27, 2, 190}, {16, 30, 1, 190}, {17, 31, 2, 190}, {18, 32, 1, 190}, {11, 24, 1, 191}, {13, 27, 2, 191}, {14, 28, 2, 191}, {16, 31, 1, 191}, {17, 32, 2, 191}, {18, 33, 1, 191}, {11, 25, 1, 192}, {13, 28, 2, 192}, {14, 29, 2, 192}, {16, 32, 1, 192}, {17, 33, 2, 192}, {18, 34, 1, 192}, {12, 20, 1, 193}, {14, 21, 2, 193}, {15, 22, 2, 193}, {17, 23, 1, 193}, {18, 24, 2, 193}, {19, 25, 1, 193}, {12, 21, 1, 194}, {14, 23, 2, 194}, {15, 24, 2, 194}, {17, 26, 1, 194}, {18, 27, 2, 194}, {19, 28, 1, 194}, {12, 22, 1, 195}, {14, 24, 2, 195}, {15, 25, 2, 195}, {17, 27, 1, 195}, {18, 28, 2, 195}, {19, 29, 1, 195}, {12, 23, 1, 196}, {14, 26, 2, 196}, {15, 27, 2, 196}, {17, 30, 1, 196}, {18, 31, 2, 196}, {19, 32, 1, 196}, {12, 24, 1, 197}, {14, 27, 2, 197}, {15, 28, 2, 197}, {17, 31, 1, 197}, {18, 32, 2, 197}, {19, 33, 1, 197}, {12, 25, 1, 198}, {14, 28, 2, 198}, {15, 29, 2, 198}, {17, 32, 1, 198}, {18, 33, 2, 198}, {19, 34, 1, 198}, {10, 10, 1, 199}, {11, 11, 3, 199}, {12, 12, 3, 199}, {13, 13, 3, 199}, {14, 14, 6, 199}, {15, 15, 3, 199}, {16, 16, 1, 199}, {17, 17, 3, 199}, {18, 18, 3, 199}, {19, 19, 1, 199}, {10, 20, 1, 200}, {11, 21, 3, 200}, {12, 22, 3, 200}, {13, 23, 3, 200}, {14, 24, 6, 200}, {15, 25, 3, 200}, {16, 26, 1, 200}, {17, 27, 3, 200}, {18, 28, 3, 200}, {19, 29, 1, 200}, {10, 21, 1, 201}, {11, 23, 3, 201}, {12, 24, 3, 201}, {13, 26, 3, 201}, {14, 27, 6, 201}, {15, 28, 3, 201}, {16, 30, 1, 201}, {17, 31, 3, 201}, {18, 32, 3, 201}, {19, 33, 1, 201}, {10, 22, 1, 202}, {11, 24, 3, 202}, {12, 25, 3, 202}, {13, 27, 3, 202}, {14, 28, 6, 202}, {15, 29, 3, 202}, {16, 31, 1, 202}, {17, 32, 3, 202}, {18, 33, 3, 202}, {19, 34, 1, 202}, {10, 35, 1, 203}, {11, 36, 3, 203}, {12, 37, 3, 203}, {13, 38, 3, 203}, {14, 39, 6, 203}, {15, 40, 3, 203}, {16, 41, 1, 203}, {17, 42, 3, 203}, {18, 43, 3, 203}, {19, 44, 1, 203}, {10, 36, 1, 204}, {11, 38, 3, 204}, {12, 39, 3, 204}, {13, 41, 3, 204}, {14, 42, 6, 204}, {15, 43, 3, 204}, {16, 45, 1, 204}, {17, 46, 3, 204}, {18, 47, 3, 204}, {19, 48, 1, 204}, {10, 37, 1, 205}, {11, 39, 3, 205}, {12, 40, 3, 205}, {13, 42, 3, 205}, {14, 43, 6, 205}, {15, 44, 3, 205}, {16, 46, 1, 205}, {17, 47, 3, 205}, {18, 48, 3, 205}, {19, 49, 1, 205}, {10, 38, 1, 206}, {11, 41, 3, 206}, {12, 42, 3, 206}, {13, 45, 3, 206}, {14, 46, 6, 206}, {15, 47, 3, 206}, {16, 50, 1, 206}, {17, 51, 3, 206}, {18, 52, 3, 206}, {19, 53, 1, 206}, {10, 39, 1, 207}, {11, 42, 3, 207}, {12, 43, 3, 207}, {13, 46, 3, 207}, {14, 47, 6, 207}, {15, 48, 3, 207}, {16, 51, 1, 207}, {17, 52, 3, 207}, {18, 53, 3, 207}, {19, 54, 1, 207}, {10, 40, 1, 208}, {11, 43, 3, 208}, {12, 44, 3, 208}, {13, 47, 3, 208}, {14, 48, 6, 208}, {15, 49, 3, 208}, {16, 52, 1, 208}, {17, 53, 3, 208}, {18, 54, 3, 208}, {19, 55, 1, 208}, {20, 20, 1, 209}, {21, 21, 3, 209}, {22, 22, 3, 209}, {23, 23, 3, 209}, {24, 24, 6, 209}, {25, 25, 3, 209}, {26, 26, 1, 209}, {27, 27, 3, 209}, {28, 28, 3, 209}, {29, 29, 1, 209}, {20, 21, 1, 210}, {21, 23, 3, 210}, {22, 24, 3, 210}, {23, 26, 3, 210}, {24, 27, 6, 210}, {25, 28, 3, 210}, {26, 30, 1, 210}, {27, 31, 3, 210}, {28, 32, 3, 210}, {29, 33, 1, 210}, {20, 22, 1, 211}, {21, 24, 3, 211}, {22, 25, 3, 211}, {23, 27, 3, 211}, {24, 28, 6, 211}, {25, 29, 3, 211}, {26, 31, 1, 211}, {27, 32, 3, 211}, {28, 33, 3, 211}, {29, 34, 1, 211}, {21, 21, 1, 212}, {23, 23, 3, 212}, {24, 24, 3, 212}, {26, 26, 3, 212}, {27, 27, 6, 212}, {28, 28, 3, 212}, {30, 30, 1, 212}, {31, 31, 3, 212}, {32, 32, 3, 212}, {33, 33, 1, 212}, {21, 22, 1, 213}, {23, 24, 3, 213}, {24, 25, 3, 213}, {26, 27, 3, 213}, {27, 28, 6, 213}, {28, 29, 3, 213}, {30, 31, 1, 213}, {31, 32, 3, 213}, {32, 33, 3, 213}, {33, 34, 1, 213}, {22, 22, 1, 214}, {24, 24, 3, 214}, {25, 25, 3, 214}, {27, 27, 3, 214}, {28, 28, 6, 214}, {29, 29, 3, 214}, {31, 31, 1, 214}, {32, 32, 3, 214}, {33, 33, 3, 214}, {34, 34, 1, 214}, {20, 20, 1, 215}, {21, 21, 4, 215}, {22, 22, 4, 215}, {23, 23, 6, 215}, {24, 24, 12, 215}, {25, 25, 6, 215}, {26, 26, 4, 215}, {27, 27, 12, 215}, {28, 28, 12, 215}, {29, 29, 4, 215}, {30, 30, 1, 215}, {31, 31, 4, 215}, {32, 32, 6, 215}, {33, 33, 4, 215}, {34, 34, 1, 215}, {20, 35, 1, 216}, {21, 36, 4, 216}, {22, 37, 4, 216}, {23, 38, 6, 216}, {24, 39, 12, 216}, {25, 40, 6, 216}, {26, 41, 4, 216}, {27, 42, 12, 216}, {28, 43, 12, 216}, {29, 44, 4, 216}, {30, 45, 1, 216}, {31, 46, 4, 216}, {32, 47, 6, 216}, {33, 48, 4, 216}, {34, 49, 1, 216}, {20, 36, 1, 217}, {21, 38, 4, 217}, {22, 39, 4, 217}, {23, 41, 6, 217}, {24, 42, 12, 217}, {25, 43, 6, 217}, {26, 45, 4, 217}, {27, 46, 12, 217}, {28, 47, 12, 217}, {29, 48, 4, 217}, {30, 50, 1, 217}, {31, 51, 4, 217}, {32, 52, 6, 217}, {33, 53, 4, 217}, {34, 54, 1, 217}, {20, 37, 1, 218}, {21, 39, 4, 218}, {22, 40, 4, 218}, {23, 42, 6, 218}, {24, 43, 12, 218}, {25, 44, 6, 218}, {26, 46, 4, 218}, {27, 47, 12, 218}, {28, 48, 12, 218}, {29, 49, 4, 218}, {30, 51, 1, 218}, {31, 52, 4, 218}, {32, 53, 6, 218}, {33, 54, 4, 218}, {34, 55, 1, 218}, {35, 35, 1, 219}, {36, 36, 5, 219}, {37, 37, 5, 219}, {38, 38, 10, 219}, {39, 39, 20, 219}, {40, 40, 10, 219}, {41, 41, 10, 219}, {42, 42, 30, 219}, {43, 43, 30, 219}, {44, 44, 10, 219}, {45, 45, 5, 219}, {46, 46, 20, 219}, {47, 47, 30, 219}, {48, 48, 20, 219}, {49, 49, 5, 219}, {50, 50, 1, 219}, {51, 51, 5, 219}, {52, 52, 10, 219}, {53, 53, 10, 219}, {54, 54, 5, 219}, {55, 55, 1, 219}, {56, 56, 1, 220}, {57, 57, 6, 220}, {58, 58, 6, 220}, {59, 59, 15, 220}, {60, 60, 30, 220}, {61, 61, 15, 220}, {62, 62, 20, 220}, {63, 63, 60, 220}, {64, 64, 60, 220}, {65, 65, 20, 220}, {66, 66, 15, 220}, {67, 67, 60, 220}, {68, 68, 90, 220}, {69, 69, 60, 220}, {70, 70, 15, 220}, {71, 71, 6, 220}, {72, 72, 30, 220}, {73, 73, 60, 220}, {74, 74, 60, 220}, {75, 75, 30, 220}, {76, 76, 6, 220}, {77, 77, 1, 220}, {78, 78, 6, 220}, {79, 79, 15, 220}, {80, 80, 20, 220}, {81, 81, 15, 220}, {82, 82, 6, 220}, {83, 83, 1, 220}, {0, 84, 1, 221}, {1, 85, 1, 222}, {2, 86, 1, 222}, {3, 87, 1, 222}, {1, 88, 1, 223}, {2, 89, 1, 223}, {3, 90, 1, 223}, {1, 89, 1, 224}, {2, 91, 1, 224}, {3, 92, 1, 224}, {1, 90, 1, 225}, {2, 92, 1, 225}, {3, 93, 1, 225}, {4, 85, 1, 226}, {5, 86, 1, 226}, {6, 87, 1, 226}, {5, 85, 1, 227}, {7, 86, 1, 227}, {8, 87, 1, 227}, {6, 85, 1, 228}, {8, 86, 1, 228}, {9, 87, 1, 228}, {4, 88, 1, 229}, {5, 89, 1, 229}, {6, 90, 1, 229}, {4, 89, 1, 230}, {5, 91, 1, 230}, {6, 92, 1, 230}, {4, 90, 1, 231}, {5, 92, 1, 231}, {6, 93, 1, 231}, {5, 88, 1, 232}, {7, 89, 1, 232}, {8, 90, 1, 232}, {5, 89, 1, 233}, {7, 91, 1, 233}, {8, 92, 1, 233}, {5, 90, 1, 234}, {7, 92, 1, 234}, {8, 93, 1, 234}, {6, 88, 1, 235}, {8, 89, 1, 235}, {9, 90, 1, 235}, {6, 89, 1, 236}, {8, 91, 1, 236}, {9, 92, 1, 236}, {6, 90, 1, 237}, {8, 92, 1, 237}, {9, 93, 1, 237}, {4, 88, 1, 238}, {5, 89, 2, 238}, {6, 90, 2, 238}, {7, 91, 1, 238}, {8, 92, 2, 238}, {9, 93, 1, 238}, {4, 94, 1, 239}, {5, 95, 2, 239}, {6, 96, 2, 239}, {7, 97, 1, 239}, {8, 98, 2, 239}, {9, 99, 1, 239}, {4, 95, 1, 240}, {5, 97, 2, 240}, {6, 98, 2, 240}, {7, 100, 1, 240}, {8, 101, 2, 240}, {9, 102, 1, 240}, {4, 96, 1, 241}, {5, 98, 2, 241}, {6, 99, 2, 241}, {7, 101, 1, 241}, {8, 102, 2, 241}, {9, 103, 1, 241}, {10, 88, 1, 242}, {11, 89, 2, 242}, {12, 90, 2, 242}, {13, 91, 1, 242}, {14, 92, 2, 242}, {15, 93, 1, 242}, {11, 88, 1, 243}, {13, 89, 2, 243}, {14, 90, 2, 243}, {16, 91, 1, 243}, {17, 92, 2, 243}, {18, 93, 1, 243}, {12, 88, 1, 244}, {14, 89, 2, 244}, {15, 90, 2, 244}, {17, 91, 1, 244}, {18, 92, 2, 244}, {19, 93, 1, 244}, {10, 94, 1, 245}, {11, 95, 3, 245}, {12, 96, 3, 245}, {13, 97, 3, 245}, {14, 98, 6, 245}, {15, 99, 3, 245}, {16, 100, 1, 245}, {17, 101, 3, 245}, {18, 102, 3, 245}, {19, 103, 1, 245}, {20, 104, 1, 246}, {21, 105, 4, 246}, {22, 106, 4, 246}, {23, 107, 6, 246}, {24, 108, 12, 246}, {25, 109, 6, 246}, {26, 110, 4, 246}, {27, 111, 12, 246}, {28, 112, 12, 246}, {29, 113, 4, 246}, {30, 114, 1, 246}, {31, 115, 4, 246}, {32, 116, 6, 246}, {33, 117, 4, 246}, {34, 118, 1, 246}, {0, 119, 1, 247}, {1, 120, 1, 248}, {2, 121, 1, 248}, {3, 122, 1, 248}, {4, 123, 1, 249}, {5, 124, 2, 249}, {6, 125, 2, 249}, {7, 126, 1, 249}, {8, 127, 2, 249}, {9, 128, 1, 249}, {0, 129, 1, 250}, {84, 84, 1, 251}, {85, 85, 1, 252}, {86, 86, 1, 252}, {87, 87, 1, 252}, {88, 88, 1, 253}, {89, 89, 2, 253}, {90, 90, 2, 253}, {91, 91, 1, 253}, {92, 92, 2, 253}, {93, 93, 1, 253}, {84, 119, 1, 254}, {0, 130, 1, 255}, {0, 131, 1, 256}, {0, 165, 1, 257}, {0, 199, 1, 258}, {0, 215, 1, 259}, {0, 219, 1, 260}, {1, 132, 1, 261}, {2, 133, 1, 261}, {3, 134, 1, 261}, {1, 135, 1, 262}, {2, 136, 1, 262}, {3, 137, 1, 262}, {1, 136, 1, 263}, {2, 138, 1, 263}, {3, 139, 1, 263}, {1, 137, 1, 264}, {2, 139, 1, 264}, {3, 140, 1, 264}, {1, 141, 1, 265}, {2, 142, 1, 265}, {3, 143, 1, 265}, {1, 142, 1, 266}, {2, 144, 1, 266}, {3, 145, 1, 266}, {1, 143, 1, 267}, {2, 145, 1, 267}, {3, 146, 1, 267}, {1, 166, 1, 268}, {2, 167, 1, 268}, {3, 168, 1, 268}, {1, 169, 1, 269}, {2, 170, 1, 269}, {3, 171, 1, 269}, {1, 170, 1, 270}, {2, 172, 1, 270}, {3, 173, 1, 270}, {1, 171, 1, 271}, {2, 173, 1, 271}, {3, 174, 1, 271}, {1, 175, 1, 272}, {2, 176, 1, 272}, {3, 177, 1, 272}, {1, 176, 1, 273}, {2, 178, 1, 273}, {3, 179, 1, 273}, {1, 177, 1, 274}, {2, 179, 1, 274}, {3, 180, 1, 274}, {1, 200, 1, 275}, {2, 201, 1, 275}, {3, 202, 1, 275}, {1, 216, 1, 276}, {2, 217, 1, 276}, {3, 218, 1, 276}, {4, 141, 1, 277}, {5, 142, 1, 277}, {6, 143, 1, 277}, {4, 142, 1, 278}, {5, 144, 1, 278}, {6, 145, 1, 278}, {4, 143, 1, 279}, {5, 145, 1, 279}, {6, 146, 1, 279}, {5, 141, 1, 280}, {7, 142, 1, 280}, {8, 143, 1, 280}, {5, 142, 1, 281}, {7, 144, 1, 281}, {8, 145, 1, 281}, {5, 143, 1, 282}, {7, 145, 1, 282}, {8, 146, 1, 282}, {6, 141, 1, 283}, {8, 142, 1, 283}, {9, 143, 1, 283}, {6, 142, 1, 284}, {8, 144, 1, 284}, {9, 145, 1, 284}, {6, 143, 1, 285}, {8, 145, 1, 285}, {9, 146, 1, 285}, {4, 166, 1, 286}, {5, 167, 1, 286}, {6, 168, 1, 286}, {5, 166, 1, 287}, {7, 167, 1, 287}, {8, 168, 1, 287}, {6, 166, 1, 288}, {8, 167, 1, 288}, {9, 168, 1, 288}, {4, 169, 1, 289}, {5, 170, 2, 289}, {6, 171, 2, 289}, {7, 172, 1, 289}, {8, 173, 2, 289}, {9, 174, 1, 289}, {4, 203, 1, 290}, {5, 204, 2, 290}, {6, 205, 2, 290}, {7, 206, 1, 290}, {8, 207, 2, 290}, {9, 208, 1, 290}, {4, 141, 1, 291}, {5, 142, 2, 291}, {6, 143, 2, 291}, {7, 144, 1, 291}, {8, 145, 2, 291}, {9, 146, 1, 291}, {4, 147, 1, 292}, {5, 148, 1, 292}, {5, 153, 1, 292}, {6, 149, 1, 292}, {6, 159, 1, 292}, {7, 154, 1, 292}, {8, 155, 1, 292}, {8, 160, 1, 292}, {9, 161, 1, 292}, {4, 148, 1, 293}, {5, 150, 1, 293}, {5, 154, 1, 293}, {6, 151, 1, 293}, {6, 160, 1, 293}, {7, 156, 1, 293}, {8, 157, 1, 293}, {8, 162, 1, 293}, {9, 163, 1, 293}, {4, 149, 1, 294}, {5, 151, 1, 294}, {5, 155, 1, 294}, {6, 152, 1, 294}, {6, 161, 1, 294}, {7, 157, 1, 294}, {8, 158, 1, 294}, {8, 163, 1, 294}, {9, 164, 1, 294}, {4, 175, 1, 295}, {5, 176, 2, 295}, {6, 177, 2, 295}, {7, 178, 1, 295}, {8, 179, 2, 295}, {9, 180, 1, 295}, {4, 209, 1, 296}, {5, 210, 2, 296}, {6, 211, 2, 296}, {7, 212, 1, 296}, {8, 213, 2, 296}, {9, 214, 1, 296}, {10, 181, 1, 297}, {11, 182, 2, 297}, {11, 187, 1, 297}, {12, 183, 2, 297}, {12, 193, 1, 297}, {13, 184, 1, 297}, {13, 188, 2, 297}, {14, 185, 2, 297}, {14, 189, 2, 297}, {14, 194, 2, 297}, {15, 186, 1, 297}, {15, 195, 2, 297}, {16, 190, 1, 297}, {17, 191, 2, 297}, {17, 196, 1, 297}, {18, 192, 1, 297}, {18, 197, 2, 297}, {19, 198, 1, 297}, {0, 221, 1, 298}, {0, 222, 1, 299}, {0, 238, 1, 300}, {0, 245, 1, 301}, {1, 223, 1, 302}, {2, 224, 1, 302}, {3, 225, 1, 302}, {1, 239, 1, 303}, {2, 240, 1, 303}, {3, 241, 1, 303}, {84, 131, 1, 304}, {1, 226, 1, 305}, {2, 227, 1, 305}, {3, 228, 1, 305}, {1, 242, 1, 306}, {2, 243, 1, 306}, {3, 244, 1, 306}, {4, 229, 1, 307}, {5, 230, 1, 307}, {5, 232, 1, 307}, {6, 231, 1, 307}, {6, 235, 1, 307}, {7, 233, 1, 307}, {8, 234, 1, 307}, {8, 236, 1, 307}, {9, 237, 1, 307}, {84, 165, 1, 308}, {85, 166, 1, 309}, {86, 167, 1, 309}, {87, 168, 1, 309}, {84, 199, 1, 310}, {0, 247, 1, 311}, {0, 248, 1, 312}, {119, 131, 1, 313}, {0, 251, 1, 314}, {0, 252, 1, 315}, {84, 222, 1, 316}, {131, 131, 1, 317}, {131, 165, 1, 318}, {131, 199, 1, 319}, {165, 165, 1, 320}, {131, 222, 1, 321}, {0, 255, 1, 322}, {0, 256, 1, 323}, {0, 257, 1, 324}, {0, 258, 1, 325}, {0, 259, 1, 326}, {0, 261, 1, 327}, {0, 268, 1, 328}, {0, 275, 1, 329}, {0, 289, 1, 330}, {0, 291, 1, 331}, {0, 295, 1, 332}, {1, 262, 1, 333}, {2, 263, 1, 333}, {3, 264, 1, 333}, {1, 269, 1, 334}, {2, 270, 1, 334}, {3, 271, 1, 334}, {1, 265, 1, 335}, {2, 266, 1, 335}, {3, 267, 1, 335}, {1, 272, 1, 336}, {2, 273, 1, 336}, {3, 274, 1, 336}, {1, 292, 1, 337}, {2, 293, 1, 337}, {3, 294, 1, 337}, {1, 286, 1, 338}, {2, 287, 1, 338}, {3, 288, 1, 338}, {4, 277, 1, 339}, {5, 278, 1, 339}, {5, 280, 1, 339}, {6, 279, 1, 339}, {6, 283, 1, 339}, {7, 281, 1, 339}, {8, 282, 1, 339}, {8, 284, 1, 339}, {9, 285, 1, 339}, {0, 298, 1, 340}, {0, 299, 1, 341}, {0, 300, 1, 342}, {0, 302, 1, 343}, {0, 304, 1, 344}, {0, 305, 1, 345}, {0, 308, 1, 346}, {84, 261, 1, 347}, {0, 311, 1, 348}, {0, 314, 1, 349}}
alpha_scalar_moments = 92
alpha_moment_mapping = {0, 84, 119, 129, 130, 131, 165, 199, 215, 219, 220, 221, 222, 238, 245, 246, 247, 248, 249, 250, 251, 252, 253, 254, 255, 256, 257, 258, 259, 260, 261, 268, 275, 276, 289, 290, 291, 295, 296, 297, 298, 299, 300, 301, 302, 303, 304, 305, 306, 307, 308, 309, 310, 311, 312, 313, 314, 315, 316, 322, 323, 324, 325, 326, 327, 328, 329, 330, 331, 332, 333, 334, 317, 335, 336, 337, 318, 338, 319, 320, 339, 340, 341, 342, 343, 344, 345, 346, 321, 347, 348, 349}
species_coeffs = {-8.150414997935538e+00, -8.912546137574532e+00, -9.936207595108270e+00, -9.690074385715464e+00}
moment_coeffs = {-1.795680173442480e+00, 3.647015552949566e+00, -4.949505208862721e+00, 4.730804720513085e+00, -1.787130274642228e-01, -1.611962500426972e+00, 5.488454670985803e-01, 1.563638776206565e+01, 7.256779210141402e+00, -3.890486868304980e+00, -6.565448925913297e+00, -2.125714522206380e+00, -6.168922065487491e+00, 1.435052881570524e+01, -9.588948375290542e-02, -1.910247999212120e+01, 3.720868753639465e+00, 1.025437077555637e+00, -6.451061138023902e+00, -2.115411947885752e+00, 3.723094282555425e+00, -8.174939886249931e-01, -1.096432940827770e+00, -4.101874128399684e+00, -6.683864769484391e-01, -4.031784080336151e+00, 2.960265340486519e-01, 5.570736797801941e+00, 2.710431041584804e+00, 4.831081345307147e-01, 9.883532352923138e+00, 2.019685971694780e+00, -2.731757907304865e+00, 7.637635489778886e+00, 8.219188955768614e+00, -1.622427614155241e+00, -2.763655033934555e+00, -1.174759417982085e+01, -7.493661254059544e+00, -6.202798173805192e+00, -1.258059499425026e+00, -1.749308021089535e+00, 4.725189811741269e+00, 5.758129908997652e+00, -2.364198374691754e+00, 1.392917918591350e+00, 1.115795191714588e+00, -2.371649470014169e+00, 4.494201466071797e+00, -3.057818013354703e+00, 8.117028577073090e-01, -1.530909746493348e+00, -2.587752729275923e+00, 1.498396376985620e-01, 5.453999313695922e-01, 1.976604823137704e-01, -8.710656333075214e-01, -1.032338835783828e-01, -1.090908897259196e+00, 8.619403836090003e-02, 4.679363859696767e+00, -9.491089455693755e-01, 3.631458802404516e+00, 7.742621377894819e-01, -9.627605542321238e-01, -2.750987589096657e+01, -5.472293556159568e+00, 2.742000040484441e+00, -9.194164855782947e+00, -1.219025156634407e+01, -7.009826630527185e+00, 1.988236107537512e+01, -3.578860674241466e+00, -1.730075847178584e+01, 2.337914653656884e+01, 3.160278409743809e+01, -7.311997877313258e+00, 3.608288716721155e+01, -1.155079000399678e+01, 5.970103398572251e+00, 3.607008085565250e+00, -2.111729464208671e-01, 1.330338650162125e+00, 2.648909377593560e+00, 1.905403029037686e+00, -5.921984567593478e+00, 6.863739354432656e-01, -3.340648225748682e+00, 3.259403283049399e+00, 1.492618065816714e+01, -2.593042692067343e-02, 3.281875049193303e-01}