MTP
version = 1.1.0
potential_name = MTP1m
scaling = 2.814073276272674e-01
species_count = 4
potential_tag = 
radial_basis_type = RBChebyshev
	min_dist = 1.982201830564219e+00
	max_dist = 5.000000000000000e+00
	radial_basis_size = 8
	radial_funcs_count = 4
	radial_coeffs
		0-0
			{-5.790122483766671e-02, 7.699886803511773e-02, -5.183298988361857e-02, 2.263103132145509e-02, -2.385208665155687e-04, -1.424641337657484e-02, -1.939301448095900e-02, 4.822356404156335e-03}
			{1.204864884939386e-01, -6.134317423229774e-02, 5.018435688610787e-02, -3.147491684919471e-02, 1.781886517345747e-02, -2.884371194687557e-02, -1.681101088391329e-02, -2.445560507566754e-02}
			{1.110852197425754e-02, -5.538621992003823e-02, 6.011267373611065e-02, 6.776384664549195e-03, 2.380678710031946e-02, 2.482882815593798e-02, 2.101112661784452e-02, -6.167550562455625e-03}
			{-1.964838802571851e-01, 1.410731721467957e-01, -1.420596931631353e-01, 1.214652294916536e-02, -4.490170849849787e-02, 1.786530262460602e-02, 2.032619319975379e-03, 5.217548919294508e-02}
		0-1
			{-4.496200375107068e-02, 2.144709512804895e-01, -7.412057220586878e-03, 1.198592910399956e-01, 4.868408736691064e-02, 2.921524942457393e-02, -4.952745441790079e-03, 9.907647281637288e-03}
			{1.606946856203906e-01, 1.116537190521989e-02, 1.150129144783043e-01, 2.983986303800521e-02, 7.046614185614780e-02, 3.277240134009732e-02, 8.125062955839275e-03, -2.783227328599859e-03}
			{9.201606745347672e-02, 8.792114244009330e-02, 1.457323253148415e-01, 6.660861031942489e-02, 2.693984514000246e-02, 3.665706729616319e-02, 2.174787126944485e-02, -3.820967248292512e-03}
			{-9.069062456652602e-02, -6.280868944988076e-02, 2.948455567932408e-02, -2.829843587645503e-02, 3.034886107225834e-02, -5.548825490775672e-02, -3.394847987789677e-02, -1.582317787183074e-02}
		0-2
			{3.871120208503791e-02, 3.285236381902135e-01, 1.204870279012504e-01, 1.834142011303909e-01, 1.066870232782344e-01, 4.638586121113958e-02, 4.959211257987429e-03, 8.229576287551008e-03}
			{1.386647366717056e-01, -9.958338968335641e-03, 9.714134532344999e-02, 2.993978077829615e-02, 7.225984339316452e-02, 2.673543762214664e-02, 3.228203982599908e-03, -7.911549251346598e-03}
			{3.515314703607329e-02, 1.490514234992194e-02, 5.461672711660220e-02, 2.064531211019892e-02, -1.611770250014334e-02, 2.608638589116910e-02, 1.631953767227616e-02, 1.426412361368519e-04}
			{-7.747052902139848e-02, -3.077324834244595e-02, 2.248777441281917e-02, -2.005915302842261e-02, 3.779026764078063e-02, -3.794466069652869e-02, -3.257547336089228e-02, -4.111549426139613e-03}
		0-3
			{-1.497567356056174e-02, 1.769067313990365e-01, 1.383470629386202e-02, 7.656881489333228e-02, 3.166979534171156e-02, -2.839122784302159e-03, -1.981884971007607e-02, 2.958623379831989e-03}
			{1.770393357706054e-01, 1.200037242489188e-01, 1.445977961535570e-01, 1.172641509716639e-01, 8.371770700888799e-02, 5.456151111032686e-02, 6.543006732988982e-03, -2.580868903160494e-03}
			{8.455122625925947e-03, -8.020673167302651e-02, 5.109774467144074e-02, -1.077281977823186e-02, 1.638073032445084e-02, 2.313905483250687e-02, 2.517436491087347e-02, -7.608553292544936e-03}
			{-1.842414988550962e-01, 1.375556824657883e-01, -1.272753226863849e-01, -1.518803537419079e-02, -4.830007306218404e-02, -1.150082683688152e-03, -6.229714752931262e-03, 4.812898766278309e-02}
		1-0
			{3.262867110492265e-02, -8.570911692191588e-02, 3.353208046875612e-02, -2.369919536007048e-02, 2.631098057239422e-02, 1.282584678181482e-02, 2.462067986521128e-02, 1.923376770128984e-04}
			{-2.168436188986781e-02, -1.014485012000899e-01, 8.223678278834551e-02, 2.175102607553141e-03, 4.747217369675899e-02, 6.207359443658667e-02, 6.680506787140005e-02, 1.930973485154536e-02}
			{-1.812017433272187e-01, 5.717610614296688e-02, -2.850090876409361e-01, -3.564508039414977e-02, -1.774741353952228e-01, -7.045539321128846e-03, -3.020491161997902e-02, 3.370064668904114e-02}
			{-2.340677389032509e-01, -2.868178325316298e-01, -2.121332173776858e-01, -2.053814210569253e-01, -6.010182589821608e-02, -3.058147061788944e-02, 4.163765416777385e-02, 2.766867148213475e-02}
		1-1
			{-6.920158466351661e-02, -1.423585977406864e-01, -1.187347873823612e-01, -3.395036008350792e-02, -4.693903884330909e-02, 1.741690265655426e-02, 1.946124182173124e-03, 9.153555820676054e-03}
			{-1.157915895371660e-01, -9.100464669086421e-02, -4.565861386946259e-02, 5.539837759406902e-02, -2.596606850919134e-02, 7.154035377036791e-02, 2.391924139209687e-02, 1.980270250822873e-02}
			{-1.349710111872732e-01, -1.392521537045075e-01, -1.851379169434482e-01, -1.536938469061198e-01, -1.027726068642494e-01, -8.449469074370412e-02, -1.783964000328237e-02, -5.763128275694174e-04}
			{4.954611066551631e-02, 5.661611242484196e-02, 1.677353346664206e-01, 7.737607369809509e-02, 7.247144374568983e-02, 5.294955086901826e-02, 3.050351199155418e-02, 1.935532786949882e-03}
		1-2
			{-5.435760606108007e-02, -2.432258583230569e-01, -9.351337818466721e-02, -1.104733110780184e-01, -3.218796134410970e-02, -2.436296008287542e-02, 3.394922680104879e-03, -6.255332967705309e-03}
			{-1.993040545646000e-01, -3.862912086118211e-01, -2.026069826012968e-01, -1.827760344131605e-01, -1.405929048344121e-01, -4.296805442255073e-02, -2.768842289017780e-03, 1.594533272809582e-03}
			{-1.518352797752522e-01, -4.803530033382755e-02, -2.129927492483724e-01, -7.780252880590770e-02, -1.192205722162080e-01, -3.452773145435421e-02, -1.486908097293709e-02, 1.664648934427005e-02}
			{-1.115962498354296e-03, -7.400477703498992e-02, 5.796710560601268e-02, -2.772047745575953e-02, 1.510880623252826e-02, 1.335449120260046e-02, 2.240324741545150e-02, 4.105224309809486e-03}
		1-3
			{2.356841402129525e-02, -8.332831206091389e-02, 2.479527730230709e-02, -1.304306089789332e-02, 2.801965241272403e-02, 2.331520850814400e-02, 2.744755666709869e-02, 3.404923228905717e-03}
			{-2.049766195909962e-02, -1.519389625040612e-01, 8.187501472663904e-02, -4.640349123262726e-02, 3.470794329354696e-02, 2.557370803809635e-02, 5.698541416310771e-02, 4.862914275102728e-03}
			{-2.150588234494842e-01, 1.329420549104232e-02, -3.336695944477011e-01, -6.570190035802977e-02, -2.043863721092020e-01, -2.085679459899016e-02, -3.627663413081363e-02, 3.202093083085886e-02}
			{-1.326145576083163e-01, -1.202912399764049e-01, -5.616001237121050e-02, -1.031988778431937e-01, 1.387574173184508e-02, 2.818255665300443e-02, 6.879608073444794e-02, 3.948398626147894e-02}
		2-0
			{1.225728078012140e-01, 1.527734397661363e-01, 1.584317463368647e-01, 1.062001181953010e-01, 5.949310336637463e-02, 5.331991701561382e-02, 2.562789630482456e-02, 7.383978510008425e-03}
			{-3.564021051528110e-02, -3.201907566773101e-01, -1.569818421593571e-01, -1.665416780975725e-01, -2.375097538848623e-02, -5.907475604212654e-02, -8.676196519598922e-03, -1.783619390298192e-02}
			{-1.131445205182205e-01, 3.424028412606301e-01, -4.242967845146510e-02, 1.115017771752807e-01, -1.008047794984693e-01, 4.044023333409788e-02, -1.350223339831912e-02, 3.926941564130326e-02}
			{-1.864661571574338e-01, -2.075095837474613e-01, -1.847359851782541e-01, -1.988971037153767e-01, -7.233372103820855e-02, -6.338550445780033e-02, 1.417686201585788e-02, 1.288627493782352e-02}
		2-1
			{4.722888754148699e-02, -1.376537364684009e-02, 4.302093919377930e-02, 1.890349597355198e-02, 2.089009794466677e-02, 2.667004022744466e-02, 1.538633503958633e-02, 2.697219653238117e-03}
			{-3.147645485053251e-02, -2.066963457995930e-01, -1.390313495957088e-01, -8.543196395876267e-02, 4.512440913845736e-03, -2.063560976399191e-03, 1.135900838333097e-02, 2.831633433124607e-03}
			{-6.232208545599004e-02, 1.769727157170985e-01, 5.745135091059647e-02, 2.190908294684518e-02, -5.042438314984109e-02, -3.820695211287175e-02, -1.892896742188683e-02, 1.409204293753943e-03}
			{2.538801235287385e-02, 3.539216160166104e-02, 8.320929145932882e-02, 6.410835013838279e-03, 4.745324651591780e-03, -5.226025256187247e-03, -9.386946727745843e-03, -6.226847389525946e-03}
		2-2
			{-1.036627571216489e-02, -8.837865609347373e-02, -2.878029729035734e-02, -1.093759535109088e-02, -1.306837843193862e-02, 6.192601799210984e-03, 6.695775629881187e-04, -2.804921817171500e-03}
			{4.234802564807569e-02, -4.694029180089173e-02, -7.703682791410689e-02, -4.114099617794715e-02, -8.153010300674531e-03, -4.234329407843906e-03, 5.250588856995250e-03, 4.783723091320013e-03}
			{-1.111672692383526e-01, 5.968518714215090e-02, 1.702176009300034e-02, -6.268455883869581e-03, -4.086693280033882e-02, -2.767589177104781e-02, -1.135598700787598e-02, 4.315399148694454e-03}
			{5.204409146221309e-02, 4.474439359325448e-02, 1.054687708528955e-01, 8.562204394596117e-03, 4.027614247802815e-02, 1.530656768441570e-02, 1.017025333400754e-02, 1.612512995011832e-03}
		2-3
			{8.142388548020901e-02, 1.179779988093588e-01, 1.004221978180797e-01, 9.888694918190261e-02, 3.914645798938505e-02, 6.069335707352396e-02, 2.355438124905359e-02, 1.142762120192332e-02}
			{1.476783094328028e-03, -1.238040561415009e-01, -1.006150674289002e-01, -2.325781450433262e-02, 1.277328153711051e-02, 1.672369476511427e-02, 7.764169041691328e-03, 3.606626602879037e-03}
			{-1.568647551994216e-01, 6.734791521458594e-02, -1.044020866376590e-01, -9.112504378172043e-02, -1.442431738749765e-01, -7.037440082286134e-02, -3.436846158787316e-02, 8.255179987554592e-03}
			{-1.377517911520912e-01, -6.320312684057879e-02, -1.172732501708380e-01, -1.107938129687360e-01, -4.458249665785556e-02, -7.938390646901002e-03, 2.801567082155249e-02, 3.224509756124051e-02}
		3-0
			{-3.035807691484571e-03, 2.122020253390794e-01, 3.664324657631766e-02, 9.982336195616598e-02, 4.295266221357034e-02, 1.425996939678558e-02, -9.984216329528216e-03, 1.001132139242693e-02}
			{1.221665132547284e-01, -7.501751107789387e-02, 5.335640789120226e-02, -3.358455761825088e-02, 2.485096582866922e-02, -2.450064162617945e-02, -1.209131859013977e-02, -2.422503164006816e-02}
			{-3.548284474420838e-02, -1.869439757423890e-01, -9.116092705383126e-03, -6.852386321132320e-02, -8.797713598453123e-03, -1.277443318591537e-02, 7.260533103943962e-03, -1.859195137574291e-02}
			{-2.040984627650036e-01, 7.844715233436257e-02, -1.516299776942217e-01, -7.913608557385704e-02, -7.478065799834333e-02, -4.632130242490651e-02, -1.386930102261768e-02, 4.097647757149524e-02}
		3-1
			{-3.762307044478089e-03, 3.338377287823812e-01, 5.567493779301477e-02, 1.919657886361649e-01, 8.139483707710404e-02, 6.566810995080784e-02, 1.215581481316843e-02, 1.966475941466214e-02}
			{1.140429370954237e-01, -1.444469466126911e-01, 5.139231702424674e-02, -6.555664060765952e-02, 4.304103731565179e-02, -1.059809913036465e-02, 1.162181273845580e-03, -1.454270228448813e-02}
			{4.021448307604279e-02, -1.327163029579222e-02, 6.498686578853693e-02, 8.483195841798510e-04, -2.211000774255483e-02, -7.885703484254637e-03, -6.830111503674334e-03, -1.789172068466640e-02}
			{7.843583219685403e-03, 9.667078081248275e-02, 1.763424493294156e-01, 5.883982946397617e-02, 1.039099290523335e-01, -9.877294108034448e-03, -1.894881970313060e-03, 4.285538722506195e-04}
		3-2
			{2.745347980069626e-02, 3.417888995589568e-01, 9.802145942695646e-02, 1.828458769239698e-01, 9.185453072711282e-02, 4.967739292078802e-02, 9.221331069193581e-03, 1.285844269052254e-02}
			{1.215846488737801e-01, -1.519167976881443e-01, 7.395256290317412e-02, -6.445401297174261e-02, 5.849331694885795e-02, -2.219102992726083e-02, -3.024893466279149e-03, -2.108592938743324e-02}
			{1.969198676685505e-02, -3.158289362621739e-02, 3.966059111742139e-02, -2.630008310580661e-03, -2.305778096937962e-02, 2.761661900712331e-03, 3.439516663874221e-04, -1.187377941181227e-02}
			{-2.043141151082826e-02, 5.774465487964701e-02, 1.044431188325317e-01, 2.279008700439757e-02, 7.773432238837705e-02, -4.819929485449004e-03, -3.839806016803853e-03, 8.621794239913036e-03}
		3-3
			{-3.783165074222594e-02, 1.421918396241668e-01, -2.968006682852292e-02, 4.029795877729680e-02, 7.418848805343292e-04, -1.538749207324609e-02, -2.095447685594645e-02, 4.495019773292381e-03}
			{1.370423208819151e-01, -1.770325504183081e-02, 8.047556494547881e-02, 2.061561528516487e-02, 4.824282814252333e-02, 9.076649347056528e-03, -1.363102811411818e-03, -1.381064137812496e-02}
			{-1.486464237251347e-02, -1.255522415376931e-01, 2.557001882291263e-02, -2.611982156549187e-02, 5.681828058310241e-03, 3.658742113357004e-03, 7.933887784917441e-03, -1.595819970199187e-02}
			{-1.669989893606443e-01, 1.335647992678008e-01, -1.018027184104053e-01, -5.094709902718479e-02, -4.650617371073904e-02, -1.567972745196107e-02, 3.984483484241543e-03, 4.945103783981799e-02}
alpha_moments_count = 174
alpha_index_basic_count = 81
alpha_index_basic = {{0, 0, 0, 0}, {0, 1, 0, 0}, {0, 0, 1, 0}, {0, 0, 0, 1}, {0, 2, 0, 0}, {0, 1, 1, 0}, {0, 1, 0, 1}, {0, 0, 2, 0}, {0, 0, 1, 1}, {0, 0, 0, 2}, {0, 3, 0, 0}, {0, 2, 1, 0}, {0, 2, 0, 1}, {0, 1, 2, 0}, {0, 1, 1, 1}, {0, 1, 0, 2}, {0, 0, 3, 0}, {0, 0, 2, 1}, {0, 0, 1, 2}, {0, 0, 0, 3}, {0, 4, 0, 0}, {0, 3, 1, 0}, {0, 3, 0, 1}, {0, 2, 2, 0}, {0, 2, 1, 1}, {0, 2, 0, 2}, {0, 1, 3, 0}, {0, 1, 2, 1}, {0, 1, 1, 2}, {0, 1, 0, 3}, {0, 0, 4, 0}, {0, 0, 3, 1}, {0, 0, 2, 2}, {0, 0, 1, 3}, {0, 0, 0, 4}, {0, 5, 0, 0}, {0, 4, 1, 0}, {0, 4, 0, 1}, {0, 3, 2, 0}, {0, 3, 1, 1}, {0, 3, 0, 2}, {0, 2, 3, 0}, {0, 2, 2, 1}, {0, 2, 1, 2}, {0, 2, 0, 3}, {0, 1, 4, 0}, {0, 1, 3, 1}, {0, 1, 2, 2}, {0, 1, 1, 3}, {0, 1, 0, 4}, {0, 0, 5, 0}, {0, 0, 4, 1}, {0, 0, 3, 2}, {0, 0, 2, 3}, {0, 0, 1, 4}, {0, 0, 0, 5}, {1, 0, 0, 0}, {1, 1, 0, 0}, {1, 0, 1, 0}, {1, 0, 0, 1}, {1, 2, 0, 0}, {1, 1, 1, 0}, {1, 1, 0, 1}, {1, 0, 2, 0}, {1, 0, 1, 1}, {1, 0, 0, 2}, {1, 3, 0, 0}, {1, 2, 1, 0}, {1, 2, 0, 1}, {1, 1, 2, 0}, {1, 1, 1, 1}, {1, 1, 0, 2}, {1, 0, 3, 0}, {1, 0, 2, 1}, {1, 0, 1, 2}, {1, 0, 0, 3}, {2, 0, 0, 0}, {2, 1, 0, 0}, {2, 0, 1, 0}, {2, 0, 0, 1}, {3, 0, 0, 0}}
alpha_index_times_count = 348
alpha_index_times = {{0, 0, 1, 81}, {1, 1, 1, 82}, {2, 2, 1, 82}, {3, 3, 1, 82}, {1, 4, 1, 83}, {2, 5, 1, 83}, {3, 6, 1, 83}, {1, 5, 1, 84}, {2, 7, 1, 84}, {3, 8, 1, 84}, {1, 6, 1, 85}, {2, 8, 1, 85}, {3, 9, 1, 85}, {1, 10, 1, 86}, {2, 11, 1, 86}, {3, 12, 1, 86}, {1, 11, 1, 87}, {2, 13, 1, 87}, {3, 14, 1, 87}, {1, 12, 1, 88}, {2, 14, 1, 88}, {3, 15, 1, 88}, {1, 13, 1, 89}, {2, 16, 1, 89}, {3, 17, 1, 89}, {1, 14, 1, 90}, {2, 17, 1, 90}, {3, 18, 1, 90}, {1, 15, 1, 91}, {2, 18, 1, 91}, {3, 19, 1, 91}, {4, 4, 1, 92}, {5, 5, 1, 92}, {6, 6, 1, 92}, {4, 5, 1, 93}, {5, 7, 1, 93}, {6, 8, 1, 93}, {4, 6, 1, 94}, {5, 8, 1, 94}, {6, 9, 1, 94}, {5, 5, 1, 95}, {7, 7, 1, 95}, {8, 8, 1, 95}, {5, 6, 1, 96}, {7, 8, 1, 96}, {8, 9, 1, 96}, {6, 6, 1, 97}, {8, 8, 1, 97}, {9, 9, 1, 97}, {4, 4, 1, 98}, {5, 5, 2, 98}, {6, 6, 2, 98}, {7, 7, 1, 98}, {8, 8, 2, 98}, {9, 9, 1, 98}, {4, 10, 1, 99}, {5, 11, 2, 99}, {6, 12, 2, 99}, {7, 13, 1, 99}, {8, 14, 2, 99}, {9, 15, 1, 99}, {4, 11, 1, 100}, {5, 13, 2, 100}, {6, 14, 2, 100}, {7, 16, 1, 100}, {8, 17, 2, 100}, {9, 18, 1, 100}, {4, 12, 1, 101}, {5, 14, 2, 101}, {6, 15, 2, 101}, {7, 17, 1, 101}, {8, 18, 2, 101}, {9, 19, 1, 101}, {4, 20, 1, 102}, {5, 21, 2, 102}, {6, 22, 2, 102}, {7, 23, 1, 102}, {8, 24, 2, 102}, {9, 25, 1, 102}, {4, 21, 1, 103}, {5, 23, 2, 103}, {6, 24, 2, 103}, {7, 26, 1, 103}, {8, 27, 2, 103}, {9, 28, 1, 103}, {4, 22, 1, 104}, {5, 24, 2, 104}, {6, 25, 2, 104}, {7, 27, 1, 104}, {8, 28, 2, 104}, {9, 29, 1, 104}, {4, 23, 1, 105}, {5, 26, 2, 105}, {6, 27, 2, 105}, {7, 30, 1, 105}, {8, 31, 2, 105}, {9, 32, 1, 105}, {4, 24, 1, 106}, {5, 27, 2, 106}, {6, 28, 2, 106}, {7, 31, 1, 106}, {8, 32, 2, 106}, {9, 33, 1, 106}, {4, 25, 1, 107}, {5, 28, 2, 107}, {6, 29, 2, 107}, {7, 32, 1, 107}, {8, 33, 2, 107}, {9, 34, 1, 107}, {10, 10, 1, 108}, {11, 11, 2, 108}, {12, 12, 2, 108}, {13, 13, 1, 108}, {14, 14, 2, 108}, {15, 15, 1, 108}, {10, 11, 1, 109}, {11, 13, 2, 109}, {12, 14, 2, 109}, {13, 16, 1, 109}, {14, 17, 2, 109}, {15, 18, 1, 109}, {10, 12, 1, 110}, {11, 14, 2, 110}, {12, 15, 2, 110}, {13, 17, 1, 110}, {14, 18, 2, 110}, {15, 19, 1, 110}, {11, 11, 1, 111}, {13, 13, 2, 111}, {14, 14, 2, 111}, {16, 16, 1, 111}, {17, 17, 2, 111}, {18, 18, 1, 111}, {11, 12, 1, 112}, {13, 14, 2, 112}, {14, 15, 2, 112}, {16, 17, 1, 112}, {17, 18, 2, 112}, {18, 19, 1, 112}, {12, 12, 1, 113}, {14, 14, 2, 113}, {15, 15, 2, 113}, {17, 17, 1, 113}, {18, 18, 2, 113}, {19, 19, 1, 113}, {10, 10, 1, 114}, {11, 11, 3, 114}, {12, 12, 3, 114}, {13, 13, 3, 114}, {14, 14, 6, 114}, {15, 15, 3, 114}, {16, 16, 1, 114}, {17, 17, 3, 114}, {18, 18, 3, 114}, {19, 19, 1, 114}, {10, 20, 1, 115}, {11, 21, 3, 115}, {12, 22, 3, 115}, {13, 23, 3, 115}, {14, 24, 6, 115}, {15, 25, 3, 115}, {16, 26, 1, 115}, {17, 27, 3, 115}, {18, 28, 3, 115}, {19, 29, 1, 115}, {10, 21, 1, 116}, {11, 23, 3, 116}, {12, 24, 3, 116}, {13, 26, 3, 116}, {14, 27, 6, 116}, {15, 28, 3, 116}, {16, 30, 1, 116}, {17, 31, 3, 116}, {18, 32, 3, 116}, {19, 33, 1, 116}, {10, 22, 1, 117}, {11, 24, 3, 117}, {12, 25, 3, 117}, {13, 27, 3, 117}, {14, 28, 6, 117}, {15, 29, 3, 117}, {16, 31, 1, 117}, {17, 32, 3, 117}, {18, 33, 3, 117}, {19, 34, 1, 117}, {20, 20, 1, 118}, {21, 21, 4, 118}, {22, 22, 4, 118}, {23, 23, 6, 118}, {24, 24, 12, 118}, {25, 25, 6, 118}, {26, 26, 4, 118}, {27, 27, 12, 118}, {28, 28, 12, 118}, {29, 29, 4, 118}, {30, 30, 1, 118}, {31, 31, 4, 118}, {32, 32, 6, 118}, {33, 33, 4, 118}, {34, 34, 1, 118}, {35, 35, 1, 119}, {36, 36, 5, 119}, {37, 37, 5, 119}, {38, 38, 10, 119}, {39, 39, 20, 119}, {40, 40, 10, 119}, {41, 41, 10, 119}, {42, 42, 30, 119}, {43, 43, 30, 119}, {44, 44, 10, 119}, {45, 45, 5, 119}, {46, 46, 20, 119}, {47, 47, 30, 119}, {48, 48, 20, 119}, {49, 49, 5, 119}, {50, 50, 1, 119}, {51, 51, 5, 119}, {52, 52, 10, 119}, {53, 53, 10, 119}, {54, 54, 5, 119}, {55, 55, 1, 119}, {0, 56, 1, 120}, {1, 57, 1, 121}, {2, 58, 1, 121}, {3, 59, 1, 121}, {1, 60, 1, 122}, {2, 61, 1, 122}, {3, 62, 1, 122}, {1, 61, 1, 123}, {2, 63, 1, 123}, {3, 64, 1, 123}, {1, 62, 1, 124}, {2, 64, 1, 124}, {3, 65, 1, 124}, {4, 57, 1, 125}, {5, 58, 1, 125}, {6, 59, 1, 125}, {5, 57, 1, 126}, {7, 58, 1, 126}, {8, 59, 1, 126}, {6, 57, 1, 127}, {8, 58, 1, 127}, {9, 59, 1, 127}, {4, 60, 1, 128}, {5, 61, 2, 128}, {6, 62, 2, 128}, {7, 63, 1, 128}, {8, 64, 2, 128}, {9, 65, 1, 128}, {10, 66, 1, 129}, {11, 67, 3, 129}, {12, 68, 3, 129}, {13, 69, 3, 129}, {14, 70, 6, 129}, {15, 71, 3, 129}, {16, 72, 1, 129}, {17, 73, 3, 129}, {18, 74, 3, 129}, {19, 75, 1, 129}, {0, 76, 1, 130}, {1, 77, 1, 131}, {2, 78, 1, 131}, {3, 79, 1, 131}, {56, 56, 1, 132}, {57, 57, 1, 133}, {58, 58, 1, 133}, {59, 59, 1, 133}, {0, 81, 1, 134}, {0, 82, 1, 135}, {0, 98, 1, 136}, {0, 114, 1, 137}, {0, 118, 1, 138}, {1, 83, 1, 139}, {2, 84, 1, 139}, {3, 85, 1, 139}, {1, 86, 1, 140}, {2, 87, 1, 140}, {3, 88, 1, 140}, {1, 87, 1, 141}, {2, 89, 1, 141}, {3, 90, 1, 141}, {1, 88, 1, 142}, {2, 90, 1, 142}, {3, 91, 1, 142}, {1, 92, 1, 143}, {2, 93, 1, 143}, {3, 94, 1, 143}, {1, 93, 1, 144}, {2, 95, 1, 144}, {3, 96, 1, 144}, {1, 94, 1, 145}, {2, 96, 1, 145}, {3, 97, 1, 145}, {1, 99, 1, 146}, {2, 100, 1, 146}, {3, 101, 1, 146}, {1, 115, 1, 147}, {2, 116, 1, 147}, {3, 117, 1, 147}, {4, 102, 1, 148}, {5, 103, 2, 148}, {6, 104, 2, 148}, {7, 105, 1, 148}, {8, 106, 2, 148}, {9, 107, 1, 148}, {4, 92, 1, 149}, {5, 93, 2, 149}, {6, 94, 2, 149}, {7, 95, 1, 149}, {8, 96, 2, 149}, {9, 97, 1, 149}, {4, 108, 1, 150}, {5, 109, 2, 150}, {6, 110, 2, 150}, {7, 111, 1, 150}, {8, 112, 2, 150}, {9, 113, 1, 150}, {0, 120, 1, 151}, {0, 121, 1, 152}, {0, 128, 1, 153}, {1, 122, 1, 154}, {2, 123, 1, 154}, {3, 124, 1, 154}, {56, 82, 1, 155}, {1, 125, 1, 156}, {2, 126, 1, 156}, {3, 127, 1, 156}, {56, 98, 1, 157}, {0, 130, 1, 158}, {0, 132, 1, 159}, {82, 82, 1, 160}, {82, 98, 1, 161}, {0, 134, 1, 162}, {0, 135, 1, 163}, {0, 136, 1, 164}, {0, 137, 1, 165}, {0, 139, 1, 166}, {0, 146, 1, 167}, {0, 149, 1, 168}, {1, 140, 1, 169}, {2, 141, 1, 169}, {3, 142, 1, 169}, {1, 143, 1, 170}, {2, 144, 1, 170}, {3, 145, 1, 170}, {0, 151, 1, 171}, {0, 152, 1, 172}, {0, 155, 1, 173}}
alpha_scalar_moments = 52
alpha_moment_mapping = {0, 56, 76, 80, 81, 82, 98, 114, 118, 119, 120, 121, 128, 129, 130, 131, 132, 133, 134, 135, 136, 137, 138, 139, 146, 147, 148, 149, 150, 151, 152, 153, 154, 155, 156, 157, 158, 159, 162, 163, 164, 165, 166, 167, 168, 169, 160, 170, 161, 171, 172, 173}
species_coeffs = {-4.455175084017565e+00, -5.662639833582518e+00, -6.019569432691725e+00, -5.752954861137671e+00}
moment_coeffs = {-1.965922172044642e+00, 8.290978912525131e-01, 4.405834481194902e+00, 5.000839705777346e+00, -4.600442835887719e+00, -8.400210099207928e+00, 1.000855743465640e+01, 6.814734294295451e+00, -1.216550448174943e+01, -2.130135584530846e+00, -3.873645987235198e+00, -8.493689919071389e+00, 1.564463901713204e+00, 3.964180731117426e+00, -7.829194169338288e+00, -8.750787475042390e+00, 1.589572975695219e+00, 4.416403350223921e+00, -2.695808279502085e+00, -3.307315219330070e+00, 2.452675065938982e+00, 6.855715580140755e+00, -4.495123070950102e+00, 3.013198832512138e+00, -1.790343687475783e+01, 5.511987688884063e+00, 4.899669885202273e+00, -2.233563819796368e+00, 1.184811103820782e+01, -5.906590105584911e+00, -8.679735478172066e+00, 4.425819418189725e+00, -6.360538165710999e+00, -9.766939014566079e-01, -8.856676315334244e+00, 1.177656925745574e+00, -2.126742512659330e+00, -1.120116743515246e+00, 6.645836452851970e-01, -3.868797563015175e+00, -5.523370404654597e-01, 5.752598344102120e+00, 1.378231351331937e+01, -1.523930920304031e+01, -3.972373907364416e+00, 4.934724262098896e+00, -3.254971499729251e+00, 1.912967229072062e+00, 1.673707257911743e+00, -1.765359241327653e-02, -3.241059187107512e+00, -1.813873166435197e+00}